<?xml version="1.0"?>
<opencv_storage>
<cascade>
  <stageType>BOOST</stageType>
  <featureType>HAAR</featureType>
  <height>24</height>
  <width>24</width>
  <stageParams>
    <boostType>GAB</boostType>
    <minHitRate>9.9500000476837158e-01</minHitRate>
    <maxFalseAlarm>2.0000000298023224e-01</maxFalseAlarm>
    <weightTrimRate>9.4999999999999996e-01</weightTrimRate>
    <maxDepth>1</maxDepth>
    <maxWeakCount>100</maxWeakCount></stageParams>
  <featureParams>
    <maxCatCount>0</maxCatCount>
    <featSize>1</featSize>
    <mode>BASIC</mode></featureParams>
  <stageNum>30</stageNum>
  <stages>
    <!-- stage 0 -->
    <_>
      <maxWeakCount>4</maxWeakCount>
      <stageThreshold>6.1191022396087646e-01</stageThreshold>
      <weakClassifiers>
        <_>
          <internalNodes>
            0 -1 7 -1.0194615274667740e-01</internalNodes>
          <leafValues>
            9.5918369293212891e-01 -6.3636362552642822e-01</leafValues></_>
        <_>
          <internalNodes>
            0 -1 5 -4.0728724561631680e-03</internalNodes>
          <leafValues>
            1. -5.2663099765777588e-01</leafValues></_>
        <_>
          <internalNodes>
            0 -1 115 1.2253245338797569e-02</internalNodes>
          <leafValues>
            8.4069854021072388e-01 -8.1297862529754639e-01</leafValues></_>
        <_>
          <internalNodes>
            0 -1 19 -5.7850056327879429e-04</internalNodes>
          <leafValues>
            9.6993935108184814e-01 -5.9242463111877441e-01</leafValues></_></weakClassifiers></_>
    <!-- stage 1 -->
    <_>
      <maxWeakCount>3</maxWeakCount>
      <stageThreshold>-1.7814858257770538e-01</stageThreshold>
      <weakClassifiers>
        <_>
          <internalNodes>
            0 -1 17 -3.2096032053232193e-02</internalNodes>
          <leafValues>
            9.2233008146286011e-01 -8.8235294818878174e-01</leafValues></_>
        <_>
          <internalNodes>
            0 -1 51 -6.5044114307966083e-05</internalNodes>
          <leafValues>
            9.3704944849014282e-01 -6.2369889020919800e-01</leafValues></_>
        <_>
          <internalNodes>
            0 -1 2 -3.2705262303352356e-02</internalNodes>
          <leafValues>
            9.7520345449447632e-01 -4.7677981853485107e-01</leafValues></_></weakClassifiers></_>
    <!-- stage 2 -->
    <_>
      <maxWeakCount>4</maxWeakCount>
      <stageThreshold>8.1029498577117920e-01</stageThreshold>
      <weakClassifiers>
        <_>
          <internalNodes>
            0 -1 124 -1.2769214808940887e-02</internalNodes>
          <leafValues>
            -1. 8.3486241102218628e-01</leafValues></_>
        <_>
          <internalNodes>
            0 -1 26 -9.0138064697384834e-03</internalNodes>
          <leafValues>
            9.7876518964767456e-01 -4.5648041367530823e-01</leafValues></_>
        <_>
          <internalNodes>
            0 -1 68 3.4802396839950234e-05</internalNodes>
          <leafValues>
            -3.6495596170425415e-01 9.5406961441040039e-01</leafValues></_>
        <_>
          <internalNodes>
            0 -1 123 1.0581551119685173e-02</internalNodes>
          <leafValues>
            -5.2215665578842163e-01 8.7185049057006836e-01</leafValues></_></weakClassifiers></_>
    <!-- stage 3 -->
    <_>
      <maxWeakCount>5</maxWeakCount>
      <stageThreshold>4.0472313761711121e-02</stageThreshold>
      <weakClassifiers>
        <_>
          <internalNodes>
            0 -1 81 -3.1068045645952225e-03</internalNodes>
          <leafValues>
            9.5652174949645996e-01 -2.8571429848670959e-01</leafValues></_>
        <_>
          <internalNodes>
            0 -1 57 2.0577483810484409e-03</internalNodes>
          <leafValues>
            7.1598923206329346e-01 -6.3747322559356689e-01</leafValues></_>
        <_>
          <internalNodes>
            0 -1 70 -2.4233385920524597e-03</internalNodes>
          <leafValues>
            8.1838792562484741e-01 -5.7543998956680298e-01</leafValues></_>
        <_>
          <internalNodes>
            0 -1 53 -1.7738107126206160e-03</internalNodes>
          <leafValues>
            9.1049617528915405e-01 -5.4297876358032227e-01</leafValues></_>
        <_>
          <internalNodes>
            0 -1 90 -4.9254018813371658e-03</internalNodes>
          <leafValues>
            -6.1935108900070190e-01 7.2861611843109131e-01</leafValues></_></weakClassifiers></_>
    <!-- stage 4 -->
    <_>
      <maxWeakCount>3</maxWeakCount>
      <stageThreshold>7.8384047746658325e-01</stageThreshold>
      <weakClassifiers>
        <_>
          <internalNodes>
            0 -1 97 -7.8761000186204910e-03</internalNodes>
          <leafValues>
            8.4615385532379150e-01 -5.0000000000000000e-01</leafValues></_>
        <_>
          <internalNodes>
            0 -1 24 -3.6609177477657795e-03</internalNodes>
          <leafValues>
            9.0939432382583618e-01 -4.3718609213829041e-01</leafValues></_>
        <_>
          <internalNodes>
            0 -1 13 -7.7339172363281250e-02</internalNodes>
          <leafValues>
            -9.7170764207839966e-01 5.7594394683837891e-01</leafValues></_></weakClassifiers></_>
    <!-- stage 5 -->
    <_>
      <maxWeakCount>4</maxWeakCount>
      <stageThreshold>5.2353471517562866e-01</stageThreshold>
      <weakClassifiers>
        <_>
          <internalNodes>
            0 -1 54 -4.1675469838082790e-03</internalNodes>
          <leafValues>
            9.1489362716674805e-01 -2.3076923191547394e-01</leafValues></_>
        <_>
          <internalNodes>
            0 -1 15 -3.6844521760940552e-02</internalNodes>
          <leafValues>
            7.8007924556732178e-01 -6.4769864082336426e-01</leafValues></_>
        <_>
          <internalNodes>
            0 -1 103 -7.1153987664729357e-04</internalNodes>
          <leafValues>
            9.5806866884231567e-01 -4.3098264932632446e-01</leafValues></_>
        <_>
          <internalNodes>
            0 -1 100 -4.9817760009318590e-04</internalNodes>
          <leafValues>
            -7.0172888040542603e-01 7.3305737972259521e-01</leafValues></_></weakClassifiers></_>
    <!-- stage 6 -->
    <_>
      <maxWeakCount>4</maxWeakCount>
      <stageThreshold>3.0710747838020325e-01</stageThreshold>
      <weakClassifiers>
        <_>
          <internalNodes>
            0 -1 21 -1.1664564907550812e-01</internalNodes>
          <leafValues>
            -8.3333331346511841e-01 8.3333331346511841e-01</leafValues></_>
        <_>
          <internalNodes>
            0 -1 82 -7.3953056707978249e-03</internalNodes>
          <leafValues>
            7.9573929309844971e-01 -8.0899965763092041e-01</leafValues></_>
        <_>
          <internalNodes>
            0 -1 128 4.5996299013495445e-03</internalNodes>
          <leafValues>
            -5.0174516439437866e-01 1.</leafValues></_>
        <_>
          <internalNodes>
            0 -1 85 -1.1761346831917763e-03</internalNodes>
          <leafValues>
            8.4644663333892822e-01 -5.8789223432540894e-01</leafValues></_></weakClassifiers></_>
    <!-- stage 7 -->
    <_>
      <maxWeakCount>4</maxWeakCount>
      <stageThreshold>7.6983821392059326e-01</stageThreshold>
      <weakClassifiers>
        <_>
          <internalNodes>
            0 -1 135 -9.7279846668243408e-03</internalNodes>
          <leafValues>
            -3.3333334326744080e-01 8.7878787517547607e-01</leafValues></_>
        <_>
          <internalNodes>
            0 -1 14 -2.3044910281896591e-02</internalNodes>
          <leafValues>
            9.5836859941482544e-01 -2.3611436784267426e-01</leafValues></_>
        <_>
          <internalNodes>
            0 -1 74 -1.7800333444029093e-03</internalNodes>
          <leafValues>
            8.3148199319839478e-01 -4.5252162218093872e-01</leafValues></_>
        <_>
          <internalNodes>
            0 -1 101 -7.9730397555977106e-04</internalNodes>
          <leafValues>
            -6.1479663848876953e-01 6.9011461734771729e-01</leafValues></_></weakClassifiers></_>
    <!-- stage 8 -->
    <_>
      <maxWeakCount>5</maxWeakCount>
      <stageThreshold>7.5326335430145264e-01</stageThreshold>
      <weakClassifiers>
        <_>
          <internalNodes>
            0 -1 136 1.4038953930139542e-02</internalNodes>
          <leafValues>
            7.8571426868438721e-01 -1.</leafValues></_>
        <_>
          <internalNodes>
            0 -1 3 -7.7194213867187500e-02</internalNodes>
          <leafValues>
            1. -3.1633466482162476e-01</leafValues></_>
        <_>
          <internalNodes>
            0 -1 32 -1.7028313130140305e-02</internalNodes>
          <leafValues>
            9.7271174192428589e-01 -3.7967106699943542e-01</leafValues></_>
        <_>
          <internalNodes>
            0 -1 20 -1.7401198419975117e-05</internalNodes>
          <leafValues>
            9.7514635324478149e-01 -3.1910774111747742e-01</leafValues></_>
        <_>
          <internalNodes>
            0 -1 38 -9.3333079712465405e-04</internalNodes>
          <leafValues>
            1. -3.1159153580665588e-01</leafValues></_></weakClassifiers></_>
    <!-- stage 9 -->
    <_>
      <maxWeakCount>4</maxWeakCount>
      <stageThreshold>6.5016674995422363e-01</stageThreshold>
      <weakClassifiers>
        <_>
          <internalNodes>
            0 -1 42 -3.2504081726074219e-01</internalNodes>
          <leafValues>
            -1. 7.8571426868438721e-01</leafValues></_>
        <_>
          <internalNodes>
            0 -1 102 2.5070074480026960e-04</internalNodes>
          <leafValues>
            -4.3042686581611633e-01 1.</leafValues></_>
        <_>
          <internalNodes>
            0 -1 47 -3.9426828734576702e-03</internalNodes>
          <leafValues>
            8.6331462860107422e-01 -5.3992539644241333e-01</leafValues></_>
        <_>
          <internalNodes>
            0 -1 88 -1.5344347048085183e-05</internalNodes>
          <leafValues>
            8.3480477333068848e-01 -5.0501507520675659e-01</leafValues></_></weakClassifiers></_>
    <!-- stage 10 -->
    <_>
      <maxWeakCount>4</maxWeakCount>
      <stageThreshold>3.2409232854843140e-01</stageThreshold>
      <weakClassifiers>
        <_>
          <internalNodes>
            0 -1 99 -6.1300307512283325e-02</internalNodes>
          <leafValues>
            -8.0000001192092896e-01 8.0000001192092896e-01</leafValues></_>
        <_>
          <internalNodes>
            0 -1 71 8.2518381532281637e-04</internalNodes>
          <leafValues>
            8.6509734392166138e-01 -4.6485468745231628e-01</leafValues></_>
        <_>
          <internalNodes>
            0 -1 104 -3.6617890000343323e-02</internalNodes>
          <leafValues>
            7.2037822008132935e-01 -5.6055676937103271e-01</leafValues></_>
        <_>
          <internalNodes>
            0 -1 105 -3.9236986776813865e-04</internalNodes>
          <leafValues>
            8.1955176591873169e-01 -5.0799059867858887e-01</leafValues></_></weakClassifiers></_>
    <!-- stage 11 -->
    <_>
      <maxWeakCount>5</maxWeakCount>
      <stageThreshold>5.2400612831115723e-01</stageThreshold>
      <weakClassifiers>
        <_>
          <internalNodes>
            0 -1 66 3.1007808446884155e-01</internalNodes>
          <leafValues>
            7.5438594818115234e-01 -1.</leafValues></_>
        <_>
          <internalNodes>
            0 -1 36 -2.7915482860407792e-05</internalNodes>
          <leafValues>
            1. -3.4249910712242126e-01</leafValues></_>
        <_>
          <internalNodes>
            0 -1 48 1.1072430061176419e-04</internalNodes>
          <leafValues>
            -3.0998235940933228e-01 1.</leafValues></_>
        <_>
          <internalNodes>
            0 -1 109 -3.2647023908793926e-04</internalNodes>
          <leafValues>
            8.4530580043792725e-01 -3.8354799151420593e-01</leafValues></_>
        <_>
          <internalNodes>
            0 -1 6 -5.2382797002792358e-03</internalNodes>
          <leafValues>
            8.0564963817596436e-01 -4.0658101439476013e-01</leafValues></_></weakClassifiers></_>
    <!-- stage 12 -->
    <_>
      <maxWeakCount>5</maxWeakCount>
      <stageThreshold>2.1174523234367371e-01</stageThreshold>
      <weakClassifiers>
        <_>
          <internalNodes>
            0 -1 80 -3.2128132879734039e-03</internalNodes>
          <leafValues>
            8.9361703395843506e-01 -1.5384615957736969e-01</leafValues></_>
        <_>
          <internalNodes>
            0 -1 39 -2.2903287783265114e-02</internalNodes>
          <leafValues>
            -7.5699198246002197e-01 6.4205741882324219e-01</leafValues></_>
        <_>
          <internalNodes>
            0 -1 73 -7.1159969083964825e-03</internalNodes>
          <leafValues>
            8.8974249362945557e-01 -4.5264312624931335e-01</leafValues></_>
        <_>
          <internalNodes>
            0 -1 37 1.4371569704962894e-05</internalNodes>
          <leafValues>
            -3.9928361773490906e-01 8.7402701377868652e-01</leafValues></_>
        <_>
          <internalNodes>
            0 -1 59 -1.5665931277908385e-04</internalNodes>
          <leafValues>
            1. -4.7200244665145874e-01</leafValues></_></weakClassifiers></_>
    <!-- stage 13 -->
    <_>
      <maxWeakCount>5</maxWeakCount>
      <stageThreshold>1.1491265296936035e+00</stageThreshold>
      <weakClassifiers>
        <_>
          <internalNodes>
            0 -1 67 6.5334253013134003e-03</internalNodes>
          <leafValues>
            8.0180180072784424e-01 -1.</leafValues></_>
        <_>
          <internalNodes>
            0 -1 77 -3.5587808815762401e-04</internalNodes>
          <leafValues>
            -2.9145056009292603e-01 1.</leafValues></_>
        <_>
          <internalNodes>
            0 -1 117 3.8948595523834229e-02</internalNodes>
          <leafValues>
            -6.9925945997238159e-01 6.1840617656707764e-01</leafValues></_>
        <_>
          <internalNodes>
            0 -1 50 6.4011402428150177e-03</internalNodes>
          <leafValues>
            6.6090732812881470e-01 -7.3287850618362427e-01</leafValues></_>
        <_>
          <internalNodes>
            0 -1 119 -1.4200755686033517e-05</internalNodes>
          <leafValues>
            9.6139496564865112e-01 -5.3820288181304932e-01</leafValues></_></weakClassifiers></_>
    <!-- stage 14 -->
    <_>
      <maxWeakCount>4</maxWeakCount>
      <stageThreshold>8.2505524158477783e-01</stageThreshold>
      <weakClassifiers>
        <_>
          <internalNodes>
            0 -1 0 -2.3115582764148712e-02</internalNodes>
          <leafValues>
            -1. 7.5438594818115234e-01</leafValues></_>
        <_>
          <internalNodes>
            0 -1 23 -5.0797220319509506e-03</internalNodes>
          <leafValues>
            1. -3.8661360740661621e-01</leafValues></_>
        <_>
          <internalNodes>
            0 -1 93 -5.6326277554035187e-03</internalNodes>
          <leafValues>
            8.7289577722549438e-01 -3.6189204454421997e-01</leafValues></_>
        <_>
          <internalNodes>
            0 -1 116 1.3386184036789928e-05</internalNodes>
          <leafValues>
            -4.1561290621757507e-01 8.8146233558654785e-01</leafValues></_></weakClassifiers></_>
    <!-- stage 15 -->
    <_>
      <maxWeakCount>5</maxWeakCount>
      <stageThreshold>1.0768294334411621e+00</stageThreshold>
      <weakClassifiers>
        <_>
          <internalNodes>
            0 -1 22 8.7885763496160507e-03</internalNodes>
          <leafValues>
            7.6991152763366699e-01 -1.</leafValues></_>
        <_>
          <internalNodes>
            0 -1 92 1.8156839068979025e-03</internalNodes>
          <leafValues>
            6.6584479808807373e-01 -7.1413332223892212e-01</leafValues></_>
        <_>
          <internalNodes>
            0 -1 18 -3.0675576999783516e-02</internalNodes>
          <leafValues>
            5.8492934703826904e-01 -7.7677690982818604e-01</leafValues></_>
        <_>
          <internalNodes>
            0 -1 45 -5.6896253954619169e-04</internalNodes>
          <leafValues>
            9.4850182533264160e-01 -4.5835724472999573e-01</leafValues></_>
        <_>
          <internalNodes>
            0 -1 132 5.7190689258277416e-03</internalNodes>
          <leafValues>
            -4.6498358249664307e-01 8.9447909593582153e-01</leafValues></_></weakClassifiers></_>
    <!-- stage 16 -->
    <_>
      <maxWeakCount>4</maxWeakCount>
      <stageThreshold>6.2197548151016235e-01</stageThreshold>
      <weakClassifiers>
        <_>
          <internalNodes>
            0 -1 33 -2.7249091863632202e-01</internalNodes>
          <leafValues>
            -1. 7.8571426868438721e-01</leafValues></_>
        <_>
          <internalNodes>
            0 -1 35 -8.9669218286871910e-03</internalNodes>
          <leafValues>
            8.8649171590805054e-01 -4.5166960358619690e-01</leafValues></_>
        <_>
          <internalNodes>
            0 -1 126 5.5545461364090443e-03</internalNodes>
          <leafValues>
            -5.0043833255767822e-01 8.7396764755249023e-01</leafValues></_>
        <_>
          <internalNodes>
            0 -1 61 -2.9420750215649605e-03</internalNodes>
          <leafValues>
            8.7035274505615234e-01 -5.4979223012924194e-01</leafValues></_></weakClassifiers></_>
    <!-- stage 17 -->
    <_>
      <maxWeakCount>5</maxWeakCount>
      <stageThreshold>1.1221034526824951e+00</stageThreshold>
      <weakClassifiers>
        <_>
          <internalNodes>
            0 -1 31 -1.3594087958335876e-01</internalNodes>
          <leafValues>
            -7.7777779102325439e-01 7.8378379344940186e-01</leafValues></_>
        <_>
          <internalNodes>
            0 -1 78 -4.3383683077991009e-05</internalNodes>
          <leafValues>
            8.5233044624328613e-01 -3.1708166003227234e-01</leafValues></_>
        <_>
          <internalNodes>
            0 -1 106 -2.5698443874716759e-02</internalNodes>
          <leafValues>
            6.4835226535797119e-01 -6.2684595584869385e-01</leafValues></_>
        <_>
          <internalNodes>
            0 -1 63 1.0367551294621080e-04</internalNodes>
          <leafValues>
            -5.0289368629455566e-01 8.6489045619964600e-01</leafValues></_>
        <_>
          <internalNodes>
            0 -1 91 -5.9701339341700077e-04</internalNodes>
          <leafValues>
            -6.5946936607360840e-01 6.4416360855102539e-01</leafValues></_></weakClassifiers></_>
    <!-- stage 18 -->
    <_>
      <maxWeakCount>4</maxWeakCount>
      <stageThreshold>3.8028842210769653e-01</stageThreshold>
      <weakClassifiers>
        <_>
          <internalNodes>
            0 -1 95 2.5974204763770103e-02</internalNodes>
          <leafValues>
            8.1081077456474304e-02 9.2771083116531372e-01</leafValues></_>
        <_>
          <internalNodes>
            0 -1 56 -2.6477081701159477e-03</internalNodes>
          <leafValues>
            -7.0535570383071899e-01 5.9033846855163574e-01</leafValues></_>
        <_>
          <internalNodes>
            0 -1 127 -1.1624358594417572e-03</internalNodes>
          <leafValues>
            -5.8957606554031372e-01 6.8645715713500977e-01</leafValues></_>
        <_>
          <internalNodes>
            0 -1 29 -2.0153966546058655e-01</internalNodes>
          <leafValues>
            8.5209149122238159e-01 -5.2852386236190796e-01</leafValues></_></weakClassifiers></_>
    <!-- stage 19 -->
    <_>
      <maxWeakCount>5</maxWeakCount>
      <stageThreshold>2.9161506891250610e-01</stageThreshold>
      <weakClassifiers>
        <_>
          <internalNodes>
            0 -1 130 1.9823500770144165e-04</internalNodes>
          <leafValues>
            4.8038497530404831e-17 8.5106384754180908e-01</leafValues></_>
        <_>
          <internalNodes>
            0 -1 11 -1.8668133765459061e-02</internalNodes>
          <leafValues>
            -6.0448956489562988e-01 6.2925517559051514e-01</leafValues></_>
        <_>
          <internalNodes>
            0 -1 131 1.3750865036854520e-05</internalNodes>
          <leafValues>
            -3.9133456349372864e-01 9.4686013460159302e-01</leafValues></_>
        <_>
          <internalNodes>
            0 -1 112 -1.4115010853856802e-03</internalNodes>
          <leafValues>
            1. -3.0045175552368164e-01</leafValues></_>
        <_>
          <internalNodes>
            0 -1 96 -2.8952020220458508e-03</internalNodes>
          <leafValues>
            7.3682713508605957e-01 -4.5440125465393066e-01</leafValues></_></weakClassifiers></_>
    <!-- stage 20 -->
    <_>
      <maxWeakCount>6</maxWeakCount>
      <stageThreshold>-3.6648202687501907e-02</stageThreshold>
      <weakClassifiers>
        <_>
          <internalNodes>
            0 -1 4 2.9419753700494766e-02</internalNodes>
          <leafValues>
            8.1651377677917480e-01 -8.1818181276321411e-01</leafValues></_>
        <_>
          <internalNodes>
            0 -1 34 -4.4318884611129761e-02</internalNodes>
          <leafValues>
            9.0031772851943970e-01 -3.4259569644927979e-01</leafValues></_>
        <_>
          <internalNodes>
            0 -1 58 -5.9916954487562180e-03</internalNodes>
          <leafValues>
            9.6968865394592285e-01 -3.4286573529243469e-01</leafValues></_>
        <_>
          <internalNodes>
            0 -1 79 -3.3185344364028424e-05</internalNodes>
          <leafValues>
            7.3224318027496338e-01 -4.4650611281394958e-01</leafValues></_>
        <_>
          <internalNodes>
            0 -1 110 -4.9639483913779259e-03</internalNodes>
          <leafValues>
            7.1449637413024902e-01 -5.9779006242752075e-01</leafValues></_>
        <_>
          <internalNodes>
            0 -1 27 -4.4807454105466604e-04</internalNodes>
          <leafValues>
            9.0115761756896973e-01 -4.3569076061248779e-01</leafValues></_></weakClassifiers></_>
    <!-- stage 21 -->
    <_>
      <maxWeakCount>5</maxWeakCount>
      <stageThreshold>5.7682138681411743e-01</stageThreshold>
      <weakClassifiers>
        <_>
          <internalNodes>
            0 -1 30 -8.6977407336235046e-02</internalNodes>
          <leafValues>
            -1. 7.5438594818115234e-01</leafValues></_>
        <_>
          <internalNodes>
            0 -1 84 1.9243543501943350e-03</internalNodes>
          <leafValues>
            8.8026738166809082e-01 -3.3922168612480164e-01</leafValues></_>
        <_>
          <internalNodes>
            0 -1 122 -1.3226152987044770e-05</internalNodes>
          <leafValues>
            1. -3.8851156830787659e-01</leafValues></_>
        <_>
          <internalNodes>
            0 -1 65 -4.2755462229251862e-02</internalNodes>
          <leafValues>
            9.0733915567398071e-01 -2.9765918850898743e-01</leafValues></_>
        <_>
          <internalNodes>
            0 -1 60 -6.6301532089710236e-02</internalNodes>
          <leafValues>
            9.3031388521194458e-01 -3.5717046260833740e-01</leafValues></_></weakClassifiers></_>
    <!-- stage 22 -->
    <_>
      <maxWeakCount>5</maxWeakCount>
      <stageThreshold>1.0885004997253418e+00</stageThreshold>
      <weakClassifiers>
        <_>
          <internalNodes>
            0 -1 62 7.3221372440457344e-03</internalNodes>
          <leafValues>
            7.6991152763366699e-01 -1.</leafValues></_>
        <_>
          <internalNodes>
            0 -1 9 -2.0364910364151001e-01</internalNodes>
          <leafValues>
            -6.2086153030395508e-01 8.0832701921463013e-01</leafValues></_>
        <_>
          <internalNodes>
            0 -1 94 -9.0826544910669327e-03</internalNodes>
          <leafValues>
            6.2971127033233643e-01 -8.0866521596908569e-01</leafValues></_>
        <_>
          <internalNodes>
            0 -1 118 6.7406259477138519e-03</internalNodes>
          <leafValues>
            -6.2674194574356079e-01 7.4597412347793579e-01</leafValues></_>
        <_>
          <internalNodes>
            0 -1 87 -1.4506825209537055e-05</internalNodes>
          <leafValues>
            1. -4.2704698443412781e-01</leafValues></_></weakClassifiers></_>
    <!-- stage 23 -->
    <_>
      <maxWeakCount>5</maxWeakCount>
      <stageThreshold>6.0862803459167480e-01</stageThreshold>
      <weakClassifiers>
        <_>
          <internalNodes>
            0 -1 10 -3.4305644035339355e-01</internalNodes>
          <leafValues>
            -1. 7.5438594818115234e-01</leafValues></_>
        <_>
          <internalNodes>
            0 -1 83 -3.1344660092145205e-03</internalNodes>
          <leafValues>
            1. -2.8786849975585938e-01</leafValues></_>
        <_>
          <internalNodes>
            0 -1 64 -7.0306882262229919e-03</internalNodes>
          <leafValues>
            1. -3.6327978968620300e-01</leafValues></_>
        <_>
          <internalNodes>
            0 -1 134 7.5343862408772111e-04</internalNodes>
          <leafValues>
            -3.4806153178215027e-01 1.</leafValues></_>
        <_>
          <internalNodes>
            0 -1 125 -1.8656384781934321e-04</internalNodes>
          <leafValues>
            8.9697855710983276e-01 -4.3441659212112427e-01</leafValues></_></weakClassifiers></_>
    <!-- stage 24 -->
    <_>
      <maxWeakCount>6</maxWeakCount>
      <stageThreshold>6.6678905487060547e-01</stageThreshold>
      <weakClassifiers>
        <_>
          <internalNodes>
            0 -1 69 1.2636418454349041e-02</internalNodes>
          <leafValues>
            8.1308412551879883e-01 -5.3846156597137451e-01</leafValues></_>
        <_>
          <internalNodes>
            0 -1 41 -8.1578857498243451e-04</internalNodes>
          <leafValues>
            6.0872882604598999e-01 -6.6343134641647339e-01</leafValues></_>
        <_>
          <internalNodes>
            0 -1 129 -1.9556488841772079e-03</internalNodes>
          <leafValues>
            -7.3129463195800781e-01 5.2342557907104492e-01</leafValues></_>
        <_>
          <internalNodes>
            0 -1 108 -7.4517860775813460e-04</internalNodes>
          <leafValues>
            9.2815470695495605e-01 -4.4314825534820557e-01</leafValues></_>
        <_>
          <internalNodes>
            0 -1 121 -1.8968225049320608e-05</internalNodes>
          <leafValues>
            9.4560188055038452e-01 -3.4119859337806702e-01</leafValues></_>
        <_>
          <internalNodes>
            0 -1 89 -3.0635271221399307e-02</internalNodes>
          <leafValues>
            9.0871870517730713e-01 -4.2935746908187866e-01</leafValues></_></weakClassifiers></_>
    <!-- stage 25 -->
    <_>
      <maxWeakCount>5</maxWeakCount>
      <stageThreshold>8.9099979400634766e-01</stageThreshold>
      <weakClassifiers>
        <_>
          <internalNodes>
            0 -1 28 -2.0331567525863647e-01</internalNodes>
          <leafValues>
            -1. 7.6991152763366699e-01</leafValues></_>
        <_>
          <internalNodes>
            0 -1 72 1.3885750377085060e-05</internalNodes>
          <leafValues>
            -4.1746473312377930e-01 8.8578128814697266e-01</leafValues></_>
        <_>
          <internalNodes>
            0 -1 86 -1.3544221222400665e-01</internalNodes>
          <leafValues>
            -8.4401524066925049e-01 4.7147849202156067e-01</leafValues></_>
        <_>
          <internalNodes>
            0 -1 44 -1.5077972784638405e-03</internalNodes>
          <leafValues>
            7.7662646770477295e-01 -5.8114010095596313e-01</leafValues></_>
        <_>
          <internalNodes>
            0 -1 8 -4.5564807951450348e-02</internalNodes>
          <leafValues>
            6.4821463823318481e-01 -6.0309261083602905e-01</leafValues></_></weakClassifiers></_>
    <!-- stage 26 -->
    <_>
      <maxWeakCount>5</maxWeakCount>
      <stageThreshold>1.1319717168807983e+00</stageThreshold>
      <weakClassifiers>
        <_>
          <internalNodes>
            0 -1 98 3.3906124532222748e-02</internalNodes>
          <leafValues>
            7.8571426868438721e-01 -1.</leafValues></_>
        <_>
          <internalNodes>
            0 -1 1 -4.2127328924834728e-03</internalNodes>
          <leafValues>
            -5.9500515460968018e-01 7.2079503536224365e-01</leafValues></_>
        <_>
          <internalNodes>
            0 -1 75 6.6416971385478973e-03</internalNodes>
          <leafValues>
            -5.6172484159469604e-01 6.9677495956420898e-01</leafValues></_>
        <_>
          <internalNodes>
            0 -1 46 -4.0895389392971992e-03</internalNodes>
          <leafValues>
            7.3323702812194824e-01 -5.3610050678253174e-01</leafValues></_>
        <_>
          <internalNodes>
            0 -1 111 1.1397420894354582e-03</internalNodes>
          <leafValues>
            9.3841832876205444e-01 -4.8874941468238831e-01</leafValues></_></weakClassifiers></_>
    <!-- stage 27 -->
    <_>
      <maxWeakCount>4</maxWeakCount>
      <stageThreshold>7.8944593667984009e-01</stageThreshold>
      <weakClassifiers>
        <_>
          <internalNodes>
            0 -1 43 1.2229667603969574e-01</internalNodes>
          <leafValues>
            7.8378379344940186e-01 -7.7777779102325439e-01</leafValues></_>
        <_>
          <internalNodes>
            0 -1 76 -3.3828802406787872e-04</internalNodes>
          <leafValues>
            1. -3.8681334257125854e-01</leafValues></_>
        <_>
          <internalNodes>
            0 -1 16 2.5832324172370136e-04</internalNodes>
          <leafValues>
            -4.6983855962753296e-01 9.7518062591552734e-01</leafValues></_>
        <_>
          <internalNodes>
            0 -1 120 7.7178077772259712e-03</internalNodes>
          <leafValues>
            -4.0795689821243286e-01 9.2749452590942383e-01</leafValues></_></weakClassifiers></_>
    <!-- stage 28 -->
    <_>
      <maxWeakCount>5</maxWeakCount>
      <stageThreshold>6.7538887262344360e-01</stageThreshold>
      <weakClassifiers>
        <_>
          <internalNodes>
            0 -1 114 1.9735011458396912e-01</internalNodes>
          <leafValues>
            7.5438594818115234e-01 -1.</leafValues></_>
        <_>
          <internalNodes>
            0 -1 49 -2.2872303088661283e-04</internalNodes>
          <leafValues>
            1. -2.6218724250793457e-01</leafValues></_>
        <_>
          <internalNodes>
            0 -1 55 -1.0206317529082298e-02</internalNodes>
          <leafValues>
            -3.4251812100410461e-01 9.7371983528137207e-01</leafValues></_>
        <_>
          <internalNodes>
            0 -1 52 -8.6151540745049715e-04</internalNodes>
          <leafValues>
            -3.5117766261100769e-01 1.</leafValues></_>
        <_>
          <internalNodes>
            0 -1 12 6.0060666874051094e-04</internalNodes>
          <leafValues>
            -3.8530129194259644e-01 1.</leafValues></_></weakClassifiers></_>
    <!-- stage 29 -->
    <_>
      <maxWeakCount>5</maxWeakCount>
      <stageThreshold>4.6553775668144226e-01</stageThreshold>
      <weakClassifiers>
        <_>
          <internalNodes>
            0 -1 107 -3.1900711357593536e-02</internalNodes>
          <leafValues>
            -1. 7.6991152763366699e-01</leafValues></_>
        <_>
          <internalNodes>
            0 -1 40 -1.7236231360584497e-03</internalNodes>
          <leafValues>
            -2.8140377998352051e-01 1.</leafValues></_>
        <_>
          <internalNodes>
            0 -1 113 -6.2963098753243685e-04</internalNodes>
          <leafValues>
            8.3915793895721436e-01 -3.7552368640899658e-01</leafValues></_>
        <_>
          <internalNodes>
            0 -1 25 -1.8370854377280921e-05</internalNodes>
          <leafValues>
            1. -3.7492316961288452e-01</leafValues></_>
        <_>
          <internalNodes>
            0 -1 133 -6.9055968197062612e-04</internalNodes>
          <leafValues>
            -4.8678880929946899e-01 7.2747689485549927e-01</leafValues></_></weakClassifiers></_></stages>
  <features>
    <_>
      <rects>
        <_>
          0 0 1 20 -1.</_>
        <_>
          0 10 1 10 2.</_></rects>
      <tilted>0</tilted></_>
    <_>
      <rects>
        <_>
          0 0 6 1 -1.</_>
        <_>
          3 0 3 1 2.</_></rects>
      <tilted>0</tilted></_>
    <_>
      <rects>
        <_>
          0 0 6 24 -1.</_>
        <_>
          3 0 3 24 2.</_></rects>
      <tilted>0</tilted></_>
    <_>
      <rects>
        <_>
          0 0 16 7 -1.</_>
        <_>
          8 0 8 7 2.</_></rects>
      <tilted>0</tilted></_>
    <_>
      <rects>
        <_>
          0 0 24 1 -1.</_>
        <_>
          12 0 12 1 2.</_></rects>
      <tilted>0</tilted></_>
    <_>
      <rects>
        <_>
          0 0 17 4 -1.</_>
        <_>
          0 2 17 2 2.</_></rects>
      <tilted>0</tilted></_>
    <_>
      <rects>
        <_>
          0 1 4 6 -1.</_>
        <_>
          0 4 4 3 2.</_></rects>
      <tilted>0</tilted></_>
    <_>
      <rects>
        <_>
          0 1 12 23 -1.</_>
        <_>
          6 1 6 23 2.</_></rects>
      <tilted>0</tilted></_>
    <_>
      <rects>
        <_>
          0 1 14 18 -1.</_>
        <_>
          0 7 14 6 3.</_></rects>
      <tilted>0</tilted></_>
    <_>
      <rects>
        <_>
          0 5 14 9 -1.</_>
        <_>
          7 5 7 9 2.</_></rects>
      <tilted>0</tilted></_>
    <_>
      <rects>
        <_>
          0 7 20 9 -1.</_>
        <_>
          10 7 10 9 2.</_></rects>
      <tilted>0</tilted></_>
    <_>
      <rects>
        <_>
          0 8 5 12 -1.</_>
        <_>
          0 14 5 6 2.</_></rects>
      <tilted>0</tilted></_>
    <_>
      <rects>
        <_>
          0 8 20 2 -1.</_>
        <_>
          0 9 20 1 2.</_></rects>
      <tilted>0</tilted></_>
    <_>
      <rects>
        <_>
          0 10 23 8 -1.</_>
        <_>
          0 14 23 4 2.</_></rects>
      <tilted>0</tilted></_>
    <_>
      <rects>
        <_>
          0 11 6 7 -1.</_>
        <_>
          3 11 3 7 2.</_></rects>
      <tilted>0</tilted></_>
    <_>
      <rects>
        <_>
          0 11 10 8 -1.</_>
        <_>
          5 11 5 8 2.</_></rects>
      <tilted>0</tilted></_>
    <_>
      <rects>
        <_>
          0 11 7 6 -1.</_>
        <_>
          0 14 7 3 2.</_></rects>
      <tilted>0</tilted></_>
    <_>
      <rects>
        <_>
          0 14 16 9 -1.</_>
        <_>
          8 14 8 9 2.</_></rects>
      <tilted>0</tilted></_>
    <_>
      <rects>
        <_>
          0 16 10 8 -1.</_>
        <_>
          5 16 5 8 2.</_></rects>
      <tilted>0</tilted></_>
    <_>
      <rects>
        <_>
          0 18 6 1 -1.</_>
        <_>
          3 18 3 1 2.</_></rects>
      <tilted>0</tilted></_>
    <_>
      <rects>
        <_>
          0 20 8 2 -1.</_>
        <_>
          0 20 4 1 2.</_>
        <_>
          4 21 4 1 2.</_></rects>
      <tilted>0</tilted></_>
    <_>
      <rects>
        <_>
          0 20 24 4 -1.</_>
        <_>
          12 20 12 4 2.</_></rects>
      <tilted>0</tilted></_>
    <_>
      <rects>
        <_>
          1 0 10 2 -1.</_>
        <_>
          6 0 5 2 2.</_></rects>
      <tilted>0</tilted></_>
    <_>
      <rects>
        <_>
          1 4 23 12 -1.</_>
        <_>
          1 8 23 4 3.</_></rects>
      <tilted>0</tilted></_>
    <_>
      <rects>
        <_>
          1 19 8 1 -1.</_>
        <_>
          5 19 4 1 2.</_></rects>
      <tilted>0</tilted></_>
    <_>
      <rects>
        <_>
          1 21 4 2 -1.</_>
        <_>
          1 21 2 1 2.</_>
        <_>
          3 22 2 1 2.</_></rects>
      <tilted>0</tilted></_>
    <_>
      <rects>
        <_>
          2 0 22 2 -1.</_>
        <_>
          2 1 22 1 2.</_></rects>
      <tilted>0</tilted></_>
    <_>
      <rects>
        <_>
          2 8 6 1 -1.</_>
        <_>
          4 8 2 1 3.</_></rects>
      <tilted>0</tilted></_>
    <_>
      <rects>
        <_>
          2 9 19 15 -1.</_>
        <_>
          2 14 19 5 3.</_></rects>
      <tilted>0</tilted></_>
    <_>
      <rects>
        <_>
          2 10 21 13 -1.</_>
        <_>
          9 10 7 13 3.</_></rects>
      <tilted>0</tilted></_>
    <_>
      <rects>
        <_>
          2 10 22 12 -1.</_>
        <_>
          2 16 22 6 2.</_></rects>
      <tilted>0</tilted></_>
    <_>
      <rects>
        <_>
          3 0 9 21 -1.</_>
        <_>
          6 0 3 21 3.</_></rects>
      <tilted>0</tilted></_>
    <_>
      <rects>
        <_>
          3 0 12 6 -1.</_>
        <_>
          3 2 12 2 3.</_></rects>
      <tilted>0</tilted></_>
    <_>
      <rects>
        <_>
          3 0 12 14 -1.</_>
        <_>
          3 7 12 7 2.</_></rects>
      <tilted>0</tilted></_>
    <_>
      <rects>
        <_>
          3 0 16 6 -1.</_>
        <_>
          3 3 16 3 2.</_></rects>
      <tilted>0</tilted></_>
    <_>
      <rects>
        <_>
          3 0 21 2 -1.</_>
        <_>
          3 1 21 1 2.</_></rects>
      <tilted>0</tilted></_>
    <_>
      <rects>
        <_>
          3 2 7 3 -1.</_>
        <_>
          3 3 7 1 3.</_></rects>
      <tilted>0</tilted></_>
    <_>
      <rects>
        <_>
          3 3 2 2 -1.</_>
        <_>
          3 3 1 1 2.</_>
        <_>
          4 4 1 1 2.</_></rects>
      <tilted>0</tilted></_>
    <_>
      <rects>
        <_>
          3 3 10 2 -1.</_>
        <_>
          3 3 5 1 2.</_>
        <_>
          8 4 5 1 2.</_></rects>
      <tilted>0</tilted></_>
    <_>
      <rects>
        <_>
          3 20 16 1 -1.</_>
        <_>
          11 20 8 1 2.</_></rects>
      <tilted>0</tilted></_>
    <_>
      <rects>
        <_>
          4 0 6 1 -1.</_>
        <_>
          7 0 3 1 2.</_></rects>
      <tilted>0</tilted></_>
    <_>
      <rects>
        <_>
          4 1 19 2 -1.</_>
        <_>
          4 2 19 1 2.</_></rects>
      <tilted>0</tilted></_>
    <_>
      <rects>
        <_>
          4 3 20 18 -1.</_>
        <_>
          4 9 20 6 3.</_></rects>
      <tilted>0</tilted></_>
    <_>
      <rects>
        <_>
          4 5 14 16 -1.</_>
        <_>
          4 5 7 8 2.</_>
        <_>
          11 13 7 8 2.</_></rects>
      <tilted>0</tilted></_>
    <_>
      <rects>
        <_>
          4 11 2 5 -1.</_>
        <_>
          5 11 1 5 2.</_></rects>
      <tilted>0</tilted></_>
    <_>
      <rects>
        <_>
          4 21 1 3 -1.</_>
        <_>
          4 22 1 1 3.</_></rects>
      <tilted>0</tilted></_>
    <_>
      <rects>
        <_>
          5 0 12 3 -1.</_>
        <_>
          5 1 12 1 3.</_></rects>
      <tilted>0</tilted></_>
    <_>
      <rects>
        <_>
          5 0 17 3 -1.</_>
        <_>
          5 1 17 1 3.</_></rects>
      <tilted>0</tilted></_>
    <_>
      <rects>
        <_>
          5 3 8 2 -1.</_>
        <_>
          5 3 4 1 2.</_>
        <_>
          9 4 4 1 2.</_></rects>
      <tilted>0</tilted></_>
    <_>
      <rects>
        <_>
          5 6 2 6 -1.</_>
        <_>
          5 6 1 3 2.</_>
        <_>
          6 9 1 3 2.</_></rects>
      <tilted>0</tilted></_>
    <_>
      <rects>
        <_>
          5 7 6 15 -1.</_>
        <_>
          7 7 2 15 3.</_></rects>
      <tilted>0</tilted></_>
    <_>
      <rects>
        <_>
          5 16 2 2 -1.</_>
        <_>
          6 16 1 2 2.</_></rects>
      <tilted>0</tilted></_>
    <_>
      <rects>
        <_>
          5 23 6 1 -1.</_>
        <_>
          8 23 3 1 2.</_></rects>
      <tilted>0</tilted></_>
    <_>
      <rects>
        <_>
          6 0 8 2 -1.</_>
        <_>
          6 1 8 1 2.</_></rects>
      <tilted>0</tilted></_>
    <_>
      <rects>
        <_>
          6 0 18 2 -1.</_>
        <_>
          6 1 18 1 2.</_></rects>
      <tilted>0</tilted></_>
    <_>
      <rects>
        <_>
          6 3 14 4 -1.</_>
        <_>
          6 5 14 2 2.</_></rects>
      <tilted>0</tilted></_>
    <_>
      <rects>
        <_>
          6 15 16 2 -1.</_>
        <_>
          6 16 16 1 2.</_></rects>
      <tilted>0</tilted></_>
    <_>
      <rects>
        <_>
          6 16 3 6 -1.</_>
        <_>
          7 16 1 6 3.</_></rects>
      <tilted>0</tilted></_>
    <_>
      <rects>
        <_>
          7 0 17 3 -1.</_>
        <_>
          7 1 17 1 3.</_></rects>
      <tilted>0</tilted></_>
    <_>
      <rects>
        <_>
          7 3 2 2 -1.</_>
        <_>
          7 3 1 1 2.</_>
        <_>
          8 4 1 1 2.</_></rects>
      <tilted>0</tilted></_>
    <_>
      <rects>
        <_>
          7 4 12 15 -1.</_>
        <_>
          7 9 12 5 3.</_></rects>
      <tilted>0</tilted></_>
    <_>
      <rects>
        <_>
          7 5 2 14 -1.</_>
        <_>
          8 5 1 14 2.</_></rects>
      <tilted>0</tilted></_>
    <_>
      <rects>
        <_>
          7 16 11 3 -1.</_>
        <_>
          7 17 11 1 3.</_></rects>
      <tilted>0</tilted></_>
    <_>
      <rects>
        <_>
          7 22 1 2 -1.</_>
        <_>
          7 23 1 1 2.</_></rects>
      <tilted>0</tilted></_>
    <_>
      <rects>
        <_>
          8 0 13 3 -1.</_>
        <_>
          8 1 13 1 3.</_></rects>
      <tilted>0</tilted></_>
    <_>
      <rects>
        <_>
          8 0 15 9 -1.</_>
        <_>
          8 3 15 3 3.</_></rects>
      <tilted>0</tilted></_>
    <_>
      <rects>
        <_>
          8 4 16 20 -1.</_>
        <_>
          8 14 16 10 2.</_></rects>
      <tilted>0</tilted></_>
    <_>
      <rects>
        <_>
          8 12 16 2 -1.</_>
        <_>
          8 13 16 1 2.</_></rects>
      <tilted>0</tilted></_>
    <_>
      <rects>
        <_>
          8 14 8 2 -1.</_>
        <_>
          8 15 8 1 2.</_></rects>
      <tilted>0</tilted></_>
    <_>
      <rects>
        <_>
          8 19 12 5 -1.</_>
        <_>
          12 19 4 5 3.</_></rects>
      <tilted>0</tilted></_>
    <_>
      <rects>
        <_>
          8 20 12 4 -1.</_>
        <_>
          12 20 4 4 3.</_></rects>
      <tilted>0</tilted></_>
    <_>
      <rects>
        <_>
          8 21 2 2 -1.</_>
        <_>
          8 22 2 1 2.</_></rects>
      <tilted>0</tilted></_>
    <_>
      <rects>
        <_>
          8 22 3 2 -1.</_>
        <_>
          8 23 3 1 2.</_></rects>
      <tilted>0</tilted></_>
    <_>
      <rects>
        <_>
          9 0 10 2 -1.</_>
        <_>
          9 1 10 1 2.</_></rects>
      <tilted>0</tilted></_>
    <_>
      <rects>
        <_>
          9 0 10 3 -1.</_>
        <_>
          9 1 10 1 3.</_></rects>
      <tilted>0</tilted></_>
    <_>
      <rects>
        <_>
          9 14 12 10 -1.</_>
        <_>
          9 19 12 5 2.</_></rects>
      <tilted>0</tilted></_>
    <_>
      <rects>
        <_>
          9 15 3 9 -1.</_>
        <_>
          9 18 3 3 3.</_></rects>
      <tilted>0</tilted></_>
    <_>
      <rects>
        <_>
          9 17 3 2 -1.</_>
        <_>
          9 18 3 1 2.</_></rects>
      <tilted>0</tilted></_>
    <_>
      <rects>
        <_>
          9 19 2 2 -1.</_>
        <_>
          10 19 1 2 2.</_></rects>
      <tilted>0</tilted></_>
    <_>
      <rects>
        <_>
          9 21 1 3 -1.</_>
        <_>
          9 22 1 1 3.</_></rects>
      <tilted>0</tilted></_>
    <_>
      <rects>
        <_>
          10 0 8 2 -1.</_>
        <_>
          10 1 8 1 2.</_></rects>
      <tilted>0</tilted></_>
    <_>
      <rects>
        <_>
          10 0 9 2 -1.</_>
        <_>
          10 1 9 1 2.</_></rects>
      <tilted>0</tilted></_>
    <_>
      <rects>
        <_>
          10 0 10 6 -1.</_>
        <_>
          10 3 10 3 2.</_></rects>
      <tilted>0</tilted></_>
    <_>
      <rects>
        <_>
          10 6 14 6 -1.</_>
        <_>
          10 8 14 2 3.</_></rects>
      <tilted>0</tilted></_>
    <_>
      <rects>
        <_>
          10 15 8 4 -1.</_>
        <_>
          10 15 4 2 2.</_>
        <_>
          14 17 4 2 2.</_></rects>
      <tilted>0</tilted></_>
    <_>
      <rects>
        <_>
          11 0 1 4 -1.</_>
        <_>
          11 2 1 2 2.</_></rects>
      <tilted>0</tilted></_>
    <_>
      <rects>
        <_>
          11 1 13 10 -1.</_>
        <_>
          11 6 13 5 2.</_></rects>
      <tilted>0</tilted></_>
    <_>
      <rects>
        <_>
          11 3 4 2 -1.</_>
        <_>
          11 3 2 1 2.</_>
        <_>
          13 4 2 1 2.</_></rects>
      <tilted>0</tilted></_>
    <_>
      <rects>
        <_>
          11 4 3 1 -1.</_>
        <_>
          12 4 1 1 3.</_></rects>
      <tilted>0</tilted></_>
    <_>
      <rects>
        <_>
          11 4 9 16 -1.</_>
        <_>
          14 4 3 16 3.</_></rects>
      <tilted>0</tilted></_>
    <_>
      <rects>
        <_>
          11 12 12 6 -1.</_>
        <_>
          11 14 12 2 3.</_></rects>
      <tilted>0</tilted></_>
    <_>
      <rects>
        <_>
          11 16 13 3 -1.</_>
        <_>
          11 17 13 1 3.</_></rects>
      <tilted>0</tilted></_>
    <_>
      <rects>
        <_>
          11 22 4 2 -1.</_>
        <_>
          13 22 2 2 2.</_></rects>
      <tilted>0</tilted></_>
    <_>
      <rects>
        <_>
          12 0 7 2 -1.</_>
        <_>
          12 1 7 1 2.</_></rects>
      <tilted>0</tilted></_>
    <_>
      <rects>
        <_>
          12 0 10 6 -1.</_>
        <_>
          12 3 10 3 2.</_></rects>
      <tilted>0</tilted></_>
    <_>
      <rects>
        <_>
          12 14 12 10 -1.</_>
        <_>
          18 14 6 10 2.</_></rects>
      <tilted>0</tilted></_>
    <_>
      <rects>
        <_>
          12 17 12 5 -1.</_>
        <_>
          16 17 4 5 3.</_></rects>
      <tilted>0</tilted></_>
    <_>
      <rects>
        <_>
          13 0 9 10 -1.</_>
        <_>
          13 5 9 5 2.</_></rects>
      <tilted>0</tilted></_>
    <_>
      <rects>
        <_>
          13 7 4 15 -1.</_>
        <_>
          15 7 2 15 2.</_></rects>
      <tilted>0</tilted></_>
    <_>
      <rects>
        <_>
          13 10 11 14 -1.</_>
        <_>
          13 17 11 7 2.</_></rects>
      <tilted>0</tilted></_>
    <_>
      <rects>
        <_>
          13 14 5 2 -1.</_>
        <_>
          13 15 5 1 2.</_></rects>
      <tilted>0</tilted></_>
    <_>
      <rects>
        <_>
          13 18 4 3 -1.</_>
        <_>
          15 18 2 3 2.</_></rects>
      <tilted>0</tilted></_>
    <_>
      <rects>
        <_>
          13 22 7 2 -1.</_>
        <_>
          13 23 7 1 2.</_></rects>
      <tilted>0</tilted></_>
    <_>
      <rects>
        <_>
          14 0 5 3 -1.</_>
        <_>
          14 1 5 1 3.</_></rects>
      <tilted>0</tilted></_>
    <_>
      <rects>
        <_>
          14 1 9 21 -1.</_>
        <_>
          14 8 9 7 3.</_></rects>
      <tilted>0</tilted></_>
    <_>
      <rects>
        <_>
          14 21 3 3 -1.</_>
        <_>
          14 22 3 1 3.</_></rects>
      <tilted>0</tilted></_>
    <_>
      <rects>
        <_>
          15 0 6 18 -1.</_>
        <_>
          15 6 6 6 3.</_></rects>
      <tilted>0</tilted></_>
    <_>
      <rects>
        <_>
          15 1 8 4 -1.</_>
        <_>
          15 3 8 2 2.</_></rects>
      <tilted>0</tilted></_>
    <_>
      <rects>
        <_>
          15 2 3 9 -1.</_>
        <_>
          16 2 1 9 3.</_></rects>
      <tilted>0</tilted></_>
    <_>
      <rects>
        <_>
          15 4 2 4 -1.</_>
        <_>
          15 4 1 2 2.</_>
        <_>
          16 6 1 2 2.</_></rects>
      <tilted>0</tilted></_>
    <_>
      <rects>
        <_>
          15 4 3 12 -1.</_>
        <_>
          15 8 3 4 3.</_></rects>
      <tilted>0</tilted></_>
    <_>
      <rects>
        <_>
          15 5 2 12 -1.</_>
        <_>
          16 5 1 12 2.</_></rects>
      <tilted>0</tilted></_>
    <_>
      <rects>
        <_>
          15 20 6 4 -1.</_>
        <_>
          15 20 3 2 2.</_>
        <_>
          18 22 3 2 2.</_></rects>
      <tilted>0</tilted></_>
    <_>
      <rects>
        <_>
          15 22 9 1 -1.</_>
        <_>
          18 22 3 1 3.</_></rects>
      <tilted>0</tilted></_>
    <_>
      <rects>
        <_>
          16 0 8 13 -1.</_>
        <_>
          20 0 4 13 2.</_></rects>
      <tilted>0</tilted></_>
    <_>
      <rects>
        <_>
          16 0 7 21 -1.</_>
        <_>
          16 7 7 7 3.</_></rects>
      <tilted>0</tilted></_>
    <_>
      <rects>
        <_>
          16 1 2 4 -1.</_>
        <_>
          16 1 1 2 2.</_>
        <_>
          17 3 1 2 2.</_></rects>
      <tilted>0</tilted></_>
    <_>
      <rects>
        <_>
          16 2 8 22 -1.</_>
        <_>
          20 2 4 22 2.</_></rects>
      <tilted>0</tilted></_>
    <_>
      <rects>
        <_>
          16 6 2 18 -1.</_>
        <_>
          16 15 2 9 2.</_></rects>
      <tilted>0</tilted></_>
    <_>
      <rects>
        <_>
          16 12 2 12 -1.</_>
        <_>
          16 12 1 6 2.</_>
        <_>
          17 18 1 6 2.</_></rects>
      <tilted>0</tilted></_>
    <_>
      <rects>
        <_>
          16 16 8 2 -1.</_>
        <_>
          20 16 4 2 2.</_></rects>
      <tilted>0</tilted></_>
    <_>
      <rects>
        <_>
          16 17 2 2 -1.</_>
        <_>
          16 17 1 1 2.</_>
        <_>
          17 18 1 1 2.</_></rects>
      <tilted>0</tilted></_>
    <_>
      <rects>
        <_>
          17 0 3 1 -1.</_>
        <_>
          18 0 1 1 3.</_></rects>
      <tilted>0</tilted></_>
    <_>
      <rects>
        <_>
          17 1 4 22 -1.</_>
        <_>
          19 1 2 22 2.</_></rects>
      <tilted>0</tilted></_>
    <_>
      <rects>
        <_>
          18 0 6 16 -1.</_>
        <_>
          21 0 3 16 2.</_></rects>
      <tilted>0</tilted></_>
    <_>
      <rects>
        <_>
          18 4 4 2 -1.</_>
        <_>
          18 4 2 1 2.</_>
        <_>
          20 5 2 1 2.</_></rects>
      <tilted>0</tilted></_>
    <_>
      <rects>
        <_>
          18 9 6 2 -1.</_>
        <_>
          21 9 3 2 2.</_></rects>
      <tilted>0</tilted></_>
    <_>
      <rects>
        <_>
          18 10 2 8 -1.</_>
        <_>
          18 10 1 4 2.</_>
        <_>
          19 14 1 4 2.</_></rects>
      <tilted>0</tilted></_>
    <_>
      <rects>
        <_>
          18 12 4 11 -1.</_>
        <_>
          20 12 2 11 2.</_></rects>
      <tilted>0</tilted></_>
    <_>
      <rects>
        <_>
          20 0 4 8 -1.</_>
        <_>
          20 0 2 4 2.</_>
        <_>
          22 4 2 4 2.</_></rects>
      <tilted>0</tilted></_>
    <_>
      <rects>
        <_>
          20 19 4 2 -1.</_>
        <_>
          22 19 2 2 2.</_></rects>
      <tilted>0</tilted></_>
    <_>
      <rects>
        <_>
          21 2 2 2 -1.</_>
        <_>
          21 2 1 1 2.</_>
        <_>
          22 3 1 1 2.</_></rects>
      <tilted>0</tilted></_>
    <_>
      <rects>
        <_>
          21 6 2 17 -1.</_>
        <_>
          22 6 1 17 2.</_></rects>
      <tilted>0</tilted></_>
    <_>
      <rects>
        <_>
          22 0 2 2 -1.</_>
        <_>
          22 1 2 1 2.</_></rects>
      <tilted>0</tilted></_>
    <_>
      <rects>
        <_>
          22 6 2 12 -1.</_>
        <_>
          22 6 1 6 2.</_>
        <_>
          23 12 1 6 2.</_></rects>
      <tilted>0</tilted></_>
    <_>
      <rects>
        <_>
          23 0 1 10 -1.</_>
        <_>
          23 5 1 5 2.</_></rects>
      <tilted>0</tilted></_>
    <_>
      <rects>
        <_>
          23 0 1 22 -1.</_>
        <_>
          23 11 1 11 2.</_></rects>
      <tilted>0</tilted></_></features></cascade>
</opencv_storage>
